digraph Tree {
node [shape=box, style="filled, rounded", color="black", fontname="helvetica"] ;
edge [fontname="helvetica"] ;
0 [label="Glucose <= 129.5\ngini = 0.45\nsamples = 537\nvalue = [354, 183]\nclass = 0", fillcolor="#f2c29f"] ;
1 [label="BMI <= 26.3\ngini = 0.33\nsamples = 357\nvalue = [283, 74]\nclass = 0", fillcolor="#eca26d"] ;
0 -> 1 [labeldistance=2.5, labelangle=45, headlabel="True"] ;
2 [label="BMI <= 9.1\ngini = 0.06\nsamples = 97\nvalue = [94, 3]\nclass = 0", fillcolor="#e6853f"] ;
1 -> 2 ;
3 [label="Glucose <= 114.5\ngini = 0.44\nsamples = 6\nvalue = [4, 2]\nclass = 0", fillcolor="#f2c09c"] ;
2 -> 3 ;
4 [label="(...)", fillcolor="#C0C0C0"] ;
3 -> 4 ;
5 [label="(...)", fillcolor="#C0C0C0"] ;
3 -> 5 ;
6 [label="DiabetesPedigreeFunction <= 0.67\ngini = 0.02\nsamples = 91\nvalue = [90, 1]\nclass = 0", fillcolor="#e5823b"] ;
2 -> 6 ;
7 [label="(...)", fillcolor="#C0C0C0"] ;
6 -> 7 ;
8 [label="(...)", fillcolor="#C0C0C0"] ;
6 -> 8 ;
11 [label="Age <= 27.5\ngini = 0.4\nsamples = 260\nvalue = [189, 71]\nclass = 0", fillcolor="#efb083"] ;
1 -> 11 ;
12 [label="BMI <= 45.4\ngini = 0.24\nsamples = 120\nvalue = [103, 17]\nclass = 0", fillcolor="#e9965a"] ;
11 -> 12 ;
13 [label="(...)", fillcolor="#C0C0C0"] ;
12 -> 13 ;
48 [label="(...)", fillcolor="#C0C0C0"] ;
12 -> 48 ;
51 [label="DiabetesPedigreeFunction <= 0.56\ngini = 0.47\nsamples = 140\nvalue = [86, 54]\nclass = 0", fillcolor="#f5d0b5"] ;
11 -> 51 ;
52 [label="(...)", fillcolor="#C0C0C0"] ;
51 -> 52 ;
87 [label="(...)", fillcolor="#C0C0C0"] ;
51 -> 87 ;
102 [label="BMI <= 27.85\ngini = 0.48\nsamples = 180\nvalue = [71, 109]\nclass = 1", fillcolor="#baddf6"] ;
0 -> 102 [labeldistance=2.5, labelangle=-45, headlabel="False"] ;
103 [label="Glucose <= 145.5\ngini = 0.38\nsamples = 36\nvalue = [27, 9]\nclass = 0", fillcolor="#eeab7b"] ;
102 -> 103 ;
104 [label="Age <= 59.5\ngini = 0.1\nsamples = 19\nvalue = [18, 1]\nclass = 0", fillcolor="#e68844"] ;
103 -> 104 ;
105 [label="(...)", fillcolor="#C0C0C0"] ;
104 -> 105 ;
106 [label="(...)", fillcolor="#C0C0C0"] ;
104 -> 106 ;
109 [label="Age <= 25.5\ngini = 0.5\nsamples = 17\nvalue = [9, 8]\nclass = 0", fillcolor="#fcf1e9"] ;
103 -> 109 ;
110 [label="(...)", fillcolor="#C0C0C0"] ;
109 -> 110 ;
111 [label="(...)", fillcolor="#C0C0C0"] ;
109 -> 111 ;
120 [label="Glucose <= 158.5\ngini = 0.42\nsamples = 144\nvalue = [44, 100]\nclass = 1", fillcolor="#90c8f0"] ;
102 -> 120 ;
121 [label="Age <= 30.5\ngini = 0.49\nsamples = 88\nvalue = [37, 51]\nclass = 1", fillcolor="#c9e4f8"] ;
120 -> 121 ;
122 [label="(...)", fillcolor="#C0C0C0"] ;
121 -> 122 ;
147 [label="(...)", fillcolor="#C0C0C0"] ;
121 -> 147 ;
172 [label="DiabetesPedigreeFunction <= 1.16\ngini = 0.22\nsamples = 56\nvalue = [7, 49]\nclass = 1", fillcolor="#55abe9"] ;
120 -> 172 ;
173 [label="(...)", fillcolor="#C0C0C0"] ;
172 -> 173 ;
188 [label="(...)", fillcolor="#C0C0C0"] ;
172 -> 188 ;
}